double biases_1_weights[] = {-0.96178979 , -0.23917986 , -0.23212402 , -0.2245342 , -1.71852744 , -0.25244606 , -0.70807356 , -2.07269645 , -0.40352401 , -0.65268344 , 
-1.05090392 , -0.08804913 , -0.51288158 , -0.19405423 , -0.62806863 , -1.99370205 , -0.1056308 , -1.53708804 , -1.42091131 , -2.4368856 , 
-0.81119192 , -0.52126473 , -2.35101843 , 0.10267098 , -0.17425123 , -0.34821951 , -1.04184127 , -0.47194067 , -0.25883618 , -0.93448347 , 
-0.3976385 , -0.91926754 , -0.37985542 , -1.39156711 , -2.16277623 , -0.39628947 , -0.43708149 , -0.66539854 , -0.1934417 , -0.75807929 , 
-1.36432159 , -0.74310488 , -0.57619452 , -1.80293298 , -0.38207579 , -0.95824027 , -0.23958017 , -1.23103976 , -0.84340107 , -1.08316875 , 
-0.19093898 , -0.26658115 , -0.69363737 , -1.06321299 , -0.18085641 , -0.48473349 , -1.3118434 , -1.0116632 , -0.45440874 , -1.69262898 , 
-2.28522992 , -0.32850105 , -0.29507414 , -0.16844949 } ; 


double convolution_1_weights[] = { 0.776161611 , -0.248498544 , 0.160512999 , 0.850527585 , -0.134358436 , 0.222376049 , 0.181620896 , 0.152826503 , 0.134166867 , 0.096200861 , 
0.0456986539 , -0.108104669 , 0.464021564 , 0.103624657 , 0.211331755 , -0.468664974 , 0.191000968 , 0.334794462 , 0.108155064 , 0.253502578 , 
0.368827283 , -0.286423177 , 0.364328504 , -0.182979569 , -0.224659115 , -0.0859970152 , 0.567903101 , -0.884378314 , 0.0782794952 , -0.0615172535 , 
-0.0192909949 , -0.299065948 , 0.288093448 , -0.181038007 , -0.679351091 , -0.699419677 , -0.235205591 , -0.424594849 , -1.15093899 , -0.333046377 , 
-0.028390348 , 0.138027295 , -0.425205976 , -0.165925622 , 0.0533015616 , 0.524923921 , 0.14703925 , -0.733614743 , -0.11363668 , 0.724750638 , 
0.486624628 , 0.263595402 , -0.53934449 , 0.189281926 , 0.470552921 , 0.282166719 , -0.430119514 , -0.459248364 , -0.10034012 , -0.81231451 , 
0.681686759 , 0.252034932 , 0.188880607 , 0.134451225 , -0.375436038 , 0.129757226 , -0.671234488 , -0.0819130465 , 0.353851765 , 0.349978298 , 
-0.488686204 , 0.269330323 , 0.132539779 , 0.0651805401 , 0.120083869 , 0.0854424164 , 0.060565982 , 0.390102684 , 0.314871728 , -1.05442131 , 
0.590656042 , 0.477782935 , 0.103091255 , 0.140705064 , -0.57084614 , -0.0176538676 , -0.582785547 , 0.210263386 , 0.457562417 , 0.645783067 , 
0.024366783 , -0.0918642059 , 0.153875411 , -0.387997597 , -0.23248595 , 0.164460033 , -0.130670995 , 0.359582722 , -0.216383234 , 0.362844169 , 
0.267562777 , 0.696346879 , 0.946552336 , 0.591474891 , -0.230942056 , 0.0319015644 , -0.13726452 , -0.18145223 , -0.538357079 , 0.318798721 , 
-0.411576331 , 0.146301255 , -0.557499766 , 0.685754776 , -0.156995565 , 0.137383699 , 0.507644236 , -0.28791818 , -1.15080583 , 0.266000718 , 
-0.00829896051 , 0.187151015 , -0.093153879 , 0.127310336 , 0.233127564 , -0.263439596 , 0.0320874117 , 0.238248363 , -0.590038419 , -0.220828012 , 
0.18518658 , -0.76557523 , 0.646746457 , -0.680413187 , -0.00325711421 , -0.130769327 , -0.0107530113 , 0.0558659136 , -0.708921254 , 0.133266017 , 
-0.207169175 , 0.101410113 , 0.401673377 , -1.15898693 , -0.247530147 , -0.618088484 , 0.277952284 , -0.411564648 , -0.496349752 , -0.330113322 , 
0.131404102 , 0.0958177596 , -0.168185726 , -0.822737575 , -0.21851708 , 0.0751179829 , -0.869018316 , -0.181116894 , 0.133367315 , -0.213091746 , 
0.0615926012 , 0.107851341 , 0.793644905 , 0.612991571 , 0.301920652 , -0.416269749 , 0.137577012 , -0.110169679 , -0.176870361 , -0.377542704 , 
-0.155226633 , -0.577605426 , -0.384085029 , -0.200456545 , 0.369627476 , 0.357097596 , -0.129326463 , 0.512910903 , 0.362121344 , -0.105215229 , 
0.011679315 , -0.0666345954 , 0.771256208 , -0.571562529 , -0.138562799 , -0.264885813 , -0.0983139873 , 0.277395099 , 0.254172564 , -0.0149430595 , 
0.131984979 , -0.315992177 , 0.960672736 , 0.532902658 , 0.182326347 , -0.0735485926 , -0.227705017 , 0.201436713 , -0.0089564966 , 0.467083484 , 
-0.0685884506 , -0.639785826 , -0.155492291 , 0.03867428 , 0.914473295 , 0.410686314 , 0.170327917 , 0.759450257 , -0.661756039 , 0.374272764 , 
-0.381361634 , 0.260740548 , 0.294260502 , -0.386789829 , 0.0776772648 , -0.305448174 , -0.124949954 , 0.750285625 , 0.676995516 , 1.09962547 , 
-0.243140578 , 0.0738672912 , 0.672177613 , 0.547048271 , -0.928277075 , 0.275409043 , -0.365742862 , 0.471677125 , -0.813470364 , -0.249666333 , 
-1.64769435 , -1.26908195 , -0.0956639722 , 0.062894702 , -0.468298048 , 0.149155766 , 0.201655835 , -0.106976144 , 1.12327349 , -0.527854383 , 
-0.0751667693 , -0.888901412 , -0.195564672 , -0.276372373 , -0.497104824 , 0.885807395 , 0.360117257 , -0.205392405 , 0.0141184973 , -0.391044199 , 
-0.0811052024 , -0.82943517 , -0.1340615 , 0.872895718 , 0.239753649 , 0.333602965 , -0.235546052 , 0.277748853 , -0.09752848 , -0.0361909047 , 
-0.0404979438 , 0.362943858 , -0.109191529 , 0.426069826 , 0.0776030272 , 0.533522427 , 0.0967009738 , -0.536525905 , 0.469916552 , -0.302897543 , 
0.16066885 , 0.224909082 , -0.500959575 , 0.297648817 , -0.197794065 , 0.163773388 , -0.494411796 , -1.01911688 , -0.702163577 , -0.0520233288 , 
0.276713103 , 0.266480029 , -0.00859691296 , 0.199906215 , 0.681091964 , 0.0264081284 , 0.371331096 , 1.09643722 , -0.0447812267 , 0.223103061 , 
-0.429001719 , -0.172720075 , -0.320626944 , 0.775874794 , 1.14361751 , 0.469817251 , -0.376006275 , -0.339897454 , -0.128815815 , -0.249098599 , 
0.154276162 , -0.134659708 , -1.05381191 , 0.327905953 , -0.0162469111 , -1.15243769 , -0.0143943653 , -0.758939803 , 0.493636936 , -0.658993661 , 
-0.382907093 , -0.121142909 , 0.265080392 , 0.150004938 , -0.320198715 , 0.178498 , -0.410050124 , -0.148561463 , 0.187041059 , -0.0963920131 , 
-1.02304041 , 0.21448344 , 0.181453317 , 0.145611733 , -0.338225007 , -0.569852173 , 0.0179515891 , 0.216746598 , -0.656729102 , 0.422111183 , 
-0.445417076 , -0.00430303905 , -0.512185514 , 0.355677873 , 0.411949188 , 0.0278784391 , -0.740455925 , -0.553836048 , 0.319318503 , -0.340898514 , 
-0.320197403 , 0.347443849 , -0.260100096 , 0.152353883 , 0.372100681 , -0.560707271 , -0.0520809218 , 0.322161168 , -0.367547393 , 0.43944791 , 
0.114972457 , 0.151062489 , -0.398898989 , 0.577800095 , 0.411622018 , -0.37547493 , 0.0121243801 , -0.204587609 , 0.529292285 , 0.661590517 , 
-0.238518462 , 0.391001433 , -0.0595473424 , -0.344650626 , 0.064855285 , 0.268810302 , -0.831648469 , 0.112196118 , 0.564706624 , -0.461417317 , 
-0.617975771 , 0.188048214 , -0.0314943977 , -0.158291385 , 0.0346839353 , 0.466801643 , 0.262041658 , 0.00741179613 , -0.42696324 , 0.316649675 , 
-0.030326955 , 0.627339661 , -0.0651236922 , -0.573934793 , 0.501330853 , -0.114559136 , -0.364792466 , -0.360680759 , -0.209404349 , 0.156536505 , 
-0.129744604 , 0.135364801 , -0.456306458 , -0.271533459 , 0.219290286 , 0.207431376 , 0.702628016 , -0.438615084 , -0.104644291 , -0.0307850968 , 
0.436426699 , -0.572431743 , -0.103087336 , 0.454341531 , 0.117766045 , 1.13421226 , -0.0329544172 , -0.25552237 , 0.379672438 , 0.0702002347 , 
-0.135271937 , -0.550173521 , -0.1475811 , 0.0578781627 , -0.668457866 , -0.559718966 , -0.164417997 , 0.00908076577 , 0.250503689 , 1.00307655 , 
0.351903528 , -0.279172927 , -0.959753156 , 0.403979599 , 0.0222488455 , -0.0519331135 , -0.376353085 , 0.740053535 , 0.151055649 , -0.544252157 , 
-0.418166548 , 0.0973225161 , -0.12804164 , 1.04387295 , -0.126839459 , 0.325017005 , -0.607173502 , 0.204142421 , 0.550497055 , -0.836751282 , 
-0.344051182 , 0.868117452 , -0.0749045908 , -0.733813882 , -0.857287288 , -0.123791896 , 0.531779289 , 0.285947531 , -0.145647064 , -0.138431922 , 
0.418289959 , 0.118129097 , 0.186355874 , 0.655830801 , -0.207997873 , 0.582006931 , 0.140560657 , 0.666349053 , -0.214739263 , -0.511870384 , 
0.0413589925 , -0.298726529 , -0.17777966 , 0.458390355 , 0.362615824 , 0.275018126 , 0.115465343 , 0.133331999 , 0.000903377077 , 0.297779649 , 
-0.521559417 , 0.0603706501 , -0.651767075 , 0.361036837 , -0.063629508 , -0.332743347 , 0.277055502 , 0.429438084 , 0.056767635 , -0.0688454285 , 
1.21350622 , -1.04266989 , -0.230408356 , -0.266690731 , 0.0809086263 , 0.288938761 , 0.879877865 , -0.111357175 , -0.295652181 , -0.325807571 , 
-0.0482368805 , -0.269714832 , 0.48209691 , -0.526125968 , 0.466057092 , 0.132477984 , -0.466865629 , -0.117039733 , 0.17447263 , 0.111710645 , 
1.20943761 , -0.616601348 , -1.46502197 , -0.184567779 , -0.219721243 , 0.304644734 , -0.173144415 , -0.0643757805 , -0.772365212 , -0.242709979 , 
0.565523446 , -8.23019072e-05 , -0.990824044 , -0.148276687 , -0.362250239 , 0.294857174 , 0.298288018 , -0.735022664 , 0.323955238 , -0.184891701 , 
-0.254315108 , -0.264873207 , 0.519183338 , 0.0957279205 , -0.711992204 , -0.527525961 , 0.386652678 , -0.0758771151 , 0.544695079 , 0.20699805 , 
0.257141769 , -0.470112234 , 0.361549884 , 0.279776961 , -0.475023806 , 0.494600683 , -0.317675591 , -0.28901881 , -0.123553127 , 0.116274588 , 
0.186852649 , 0.245654002 , -0.309276879 , -0.144187614 , -0.15707621 , -0.43513909 , 0.27776587 , -1.10522127 , -0.235151485 , -0.264939129 , 
0.135814101 , -0.342437655 , -0.0600076206 , 0.33037293 , -0.0967702419 , -0.196080923 , -0.189625874 , 0.32718575 , 0.187714353 , 0.0876308158 , 
0.116612092 , 0.804388165 , 0.0790634155 , -0.0377079993 , -0.504665315 , 0.359725624 , 0.875133276 , 0.631069124 , -0.110618524 , -0.121162541 , 
-0.311918259 , 0.43476364 , -0.539720953 , 0.345025688 , -0.160519481 , -0.737369597 , -0.0839314014 , 0.850490451 , 0.385195374 , 1.10835779 , 
-0.292097896 , -0.374502093 , -0.103811413 , 0.172141477 , 0.146033943 , 0.5382936 , 0.206740186 , -0.342795819 , -0.982701838 , 0.343194574 , 
-0.627951801 , 0.11178831 , -0.734225154 , 0.16407229 , -0.297290921 , -0.00279023871 , 0.385548323 , 0.411924154 , -0.079599835 , -0.0312559456 , 
-0.30063802 , 1.0234071 , 0.572679222 , -0.595233083 , -0.052325502 , 0.0441446118 , -0.779995799 , -0.454478621 , 0.780953765 , -0.29171297 , 
0.202445865 , -0.89519459 , -0.935130119 , -0.254428506 , 0.581861973 , -0.820958734 , -0.223566696 , 0.026516024 , 0.348954976 , -0.208795398 , 
-0.151536584 , 0.280171096 , 0.346150607 , -0.610858321 , -0.0104617616 , -0.326152146 , 0.135902181 , 0.0154084321 , 0.962105691 , -0.368852407 , 
0.00347195379 , 0.635857761 , -0.5024333 , -0.454378754 , 0.0407426581 , -0.362382203 , -0.0785024315 , 0.0370484889 , -0.247100547 , -0.68556577 , 
-0.19817476 , 0.656847954 , -0.440995336 , -0.40887779 , -0.233131021 , -0.548370063 , -0.147920385 , 0.131161943 , 0.00476626679 , -0.762621284 , 
0.18442601 , 0.00169315166 , -0.326390535 , -0.330912739 , -0.465652257 , -0.158172667 , -0.369473398 , 0.179663718 , -0.106662497 , 0.0391394049 , 
0.828735888 , 1.05208087 , -0.409567684 , 0.258130342 , 0.463790983 , 0.569822609 , -0.107324429 , 0.294342071 , 0.393737346 , 0.177944973 , 
-0.58560288 , -0.205351993 , -0.336021721 , -0.0131838899 , 0.105070472 , 0.268303841 , -0.478039503 , 0.266509891 , -0.106995851 , 0.267934829 , 
-0.0138775287 , -0.240255117 , 0.125734031 , 0.601991773 , -0.231250435 , 0.272105217 , -0.309412092 , 0.807564378 , -0.129745647 , -0.0384858698 , 
-0.023662556 , 0.862758398 , -1.46686268 , 0.0493435562 , -0.326102614 , 0.216670677 , 0.0157359131 , 0.0681126416 , 0.372261286 , 0.290373266 , 
-0.128661335 , 0.202999607 , -0.491280079 , 0.349493325 , 0.34395197 , 0.421520531 , 0.916078806 , -0.819815636 , 0.398557514 , 1.01633596 , 
0.0856090635 , 0.00966312177 , 0.367716372 , -0.582232893 , -0.787472725 , 0.0817951411 , 0.739598989 , 0.365377128 , 0.560632586 , 0.398833066 , 
-0.71086657 , -0.676821947 , 0.284636527 , -0.00539649371 , 0.507831454 , -0.0845393538 , -0.154830024 , -0.00344370026 , -0.0712392777 , -0.943199158 , 
0.0213039778 , -0.41404286 , -0.565283656 , 0.423906714 , -0.448011458 , -0.217172161 , 0.416211337 , -0.339933485 , -0.050889954 , 1.01104128 , 
-0.130691737 , -0.144198433 , -0.416877806 , 0.501062512 , -0.291021466 , 0.240867779 , 0.361072481 , 0.373241723 , -0.0433666743 , 0.375701219 , 
-0.261058003 , 0.687985539 , -0.278707981 , -0.65658927 , 0.767194748 , 0.152717367 , 0.359449893 , -0.116981074 , 0.238495275 , -0.649018228 , 
-0.0214116052 , 0.0841672793 , 0.406660616 , 0.20329681 , -0.0642205179 , -0.179008096 , -0.205780342 , 0.471821934 , 0.0849607587 , -0.907708168 , 
-0.0468360633 , -0.678681195 , 0.255590022 , -0.370737493 , -0.000247648975 , -1.26542735 , 0.681099355 , -0.103413679 , 0.0619207062 , 0.128259733 , 
-0.661480963 , -0.779025495 , -0.441616356 , 0.197218135 , 1.14160645 , 0.265112638 , -0.245277449 , -0.0645792484 , 0.239898309 , -0.639815748 , 
-0.168126926 , -0.0797960311 , -0.15088062 , 0.0475938506 , -0.0603342727 , 1.0487746 , -0.297589362 , 0.187879741 , 0.337664515 , -0.123740114 , 
0.55005759 , 0.0524069965 , 0.412026167 , -0.267650217 , 0.454048455 , -0.547881722 , 0.320952535 , -0.753788292 , 0.197546855 , 0.0235512387 , 
0.0658017024 , -0.538976848 , 0.0246955976 , -0.365637511 , 0.440421999 , 0.084233813 , 0.270614713 , 0.363510758 , -0.067741029 , -0.604095817 , 
0.521602809 , 1.1090554 , -0.844358742 , 0.158839837 , -0.730358899 , -0.472836316 , 0.104609162 , -0.458588868 , 0.228624389 , 0.0710067078 , 
-0.501374424 , -0.307364017 , -0.0770766437 , -0.851032734 , -0.338616192 , 0.0111070881 , 0.306193888 , -0.35968405 , 0.103236184 , -1.36560237 , 
0.124922022 , -0.0160889793 , -0.0431125462 , 0.0221886169 , -0.189857572 , -0.85405302 , -0.509496033 , 0.339507818 , 0.903808296 , -0.2294361 , 
-0.0556389242 , 0.0474885292 , 0.395104438 , -0.43728596 , 0.215648621 , 0.0817479715 , 0.332108259 , -0.404974073 , -0.0701267943 , 0.431280643 , 
0.782101989 , 0.330681652 , -0.0977516174 , 0.190953672 , 0.0914848521 , 0.578370333 , 0.213261068 , -0.116384581 , -0.126889735 , 0.120002292 , 
0.00123242545 , -0.0442939773 , 0.334843248 , -0.620182872 , 0.128590077 , -0.0593849309 , 0.204506487 , -0.341673434 , -0.413799673 , 0.42346707 , 
0.531581044 , 0.572873175 , -0.135969624 , -0.778557062 , -1.06611109 , -0.358787805 , 2.00035667 , -0.260448307 , -0.105338089 , -0.0351264216 , 
0.734841764 , 0.293688029 , 0.0218286831 , -0.162231147 , -0.358803958 , 0.127179429 , -0.211967528 , -0.312666774 , -0.616052806 , 0.722914159 , 
0.346881628 , 0.976357043 , 0.205345452 , -0.55385083 , 0.12626414 , 0.310062051 , -0.303854674 , 0.269494236 , 0.470229805 , -0.590186417 , 
-0.0473576896 , 0.600809395 , 1.4849813 , -0.661907196 , 0.449461699 , -0.136012346 , -0.186260059 , 0.0893208012 , 0.0102060121 , -0.0860862955 , 
0.559054554 , 0.297558844 , 0.191789523 , 0.0692141429 , 0.501939833 , 0.334639162 , 0.563041925 , -0.115355156 , 0.447624743 , 0.55433917 , 
-0.270483017 , 0.351312071 , 0.107745364 , -0.121441193 , -0.301759452 , 0.744077027 , 0.335990399 , 0.849242687 , 0.411609113 , -0.0555416718 , 
0.254916668 , 0.107258379 , -0.417649537 , -0.00242646853 , 0.51954335 , 0.366005868 , -0.541666687 , -0.197139665 , 0.385661215 , -0.3970626 , 
-1.27104723 , 0.102461956 , -0.296710759 , 0.180854484 , 0.497205049 , 0.154857963 , 0.485793769 , 0.0780765191 , 0.157921091 , 0.478809536 , 
-0.236998945 , -0.0484563261 , -0.392562687 , -0.749755681 , -0.242232591 , -0.212868825 , -0.00347914617 , 0.13478978 , 0.136496693 , -1.00403714 , 
0.180319503 , 0.204997003 , 0.66760844 , 0.351606578 , -0.121874526 , -0.624105871 , -0.551271737 , -0.0984289274 , 0.125596195 , 0.0431026854 , 
-0.319206178 , -0.267196327 , -0.0493190959 , -0.0914065167 , 0.477470368 , -0.255972445 , -1.02909005 , -0.467924386 , -0.178460732 , -0.0775025487 , 
0.561712205 , -0.229411811 , -1.11717439 , -0.232459605 , 0.359467447 , 0.880717158 , 0.770880401 , 0.11771705 , 0.253472626 , 1.16398036 , 
-0.254576862 , 0.0612003691 , 0.047206752 , 0.289457321 , -0.119788498 , -0.0671028122 , -1.03446269 , 0.422202677 , 0.0890363082 , 0.26908645 , 
-0.0112975985 , 0.212425634 , -0.366557568 , 0.519811869 , -0.28241387 , -0.687421322 , -0.230669796 , 0.681256294 , 0.124732025 , -0.414800823 , 
0.500665605 , 0.052622579 , -0.692254126 , -0.132519871 , 0.172998577 , 0.0331506543 , 1.21986139 , 0.426982552 , 0.161740556 , 0.00447120611 , 
-0.14825207 , 0.0490492135 , -0.177327201 , 0.935278714 , -0.336960256 , -0.257189453 , 0.16845344 , 1.0607096 , -0.341527462 , 0.0980788618 , 
-0.827348292 , 0.153600886 , -0.127273455 , 0.0980154648 , 0.0205945186 , -0.974990368 , 0.545290768 , -0.057439182 , -0.651707649 , -0.238011092 , 
-0.132892996 , -0.110654451 , -0.455272734 , -0.108412795 , 0.456548125 , -0.165275857 , 0.0990664735 , -0.293421298 , -0.0192705151 , -0.190186888 , 
0.0997857824 , 0.0644135401 , -0.163728058 , -0.582443893 , -0.0946531072 , -0.446330905 , 0.104590222 , -0.282025427 , 0.214839637 , -0.10042087 , 
1.12457371 , -0.342547476 , -0.20924522 , -0.605833352 , 0.191030845 , 0.644876063 , 0.631038845 , -0.504218876 , 0.378403872 , -0.174259275 , 
0.0338188782 , -0.172861218 , 0.724068522 , 0.090112187 , -0.0649800822 , -0.0670856014 , -0.724537075 , -0.00999592431 , 0.166397199 , -0.0910729915 , 
-0.37228322 , 0.36281544 , 0.506182671 , 0.128087223 , -0.000758072187 , -0.00535163749 , -0.878584087 , 0.881229997 , 0.266331106 , 0.473420918 , 
-0.321976304 , 0.199918717 , -0.0289283749 , -0.0726074725 , -0.381174594 , 0.132324368 , -0.363823175 , -0.0913418755 , 0.211920455 , 0.326001495 , 
0.0467592254 , 0.00671600504 , -0.325132966 , 0.325805426 , 0.0593109243 , -0.303219318 , 0.478769839 , -0.470736593 , -0.09973488 , -0.128129795 , 
-0.708665729 , 0.0370769389 , 0.040638186 , -0.920610189 , 0.0824693367 , 0.250798047 , -0.105889007 , -0.303918183 , 0.140190154 , 0.373602211 , 
0.297531366 , -0.0538713075 , 0.0647297427 , -0.244661018 , 0.673320591 , -0.556879163 , -0.109566964 , -0.292503655 , -0.191087082 , 0.14752996 , 
-0.333553284 , -0.219735518 , -0.115406133 , 0.733080685 , 0.0690555125 , -0.326769978 , 0.552241206 , 0.200050324 , 0.108331695 , 0.0629022121 , 
-0.19215101 , 0.15693976 , -0.701947451 , -0.222118035 , -0.664498329 , 1.37038946 , 0.192634299 , -0.0528255403 , -0.0566490553 , 0.354932934 , 
-0.439775079 , 0.761640906 , -0.182393327 , -0.0300388671 , -0.184044555 , -0.0774561316 , 0.307325363 , -0.0119302245 , 0.275343746 , -0.21959585 , 
-0.403575987 , -0.34680897 , -1.06062388 , -0.224258274 , -0.00197178242 , -0.339935154 , -0.321310163 , -0.52049768 , 0.318997741 , -0.243050188 , 
0.278782248 , -0.166213676 , 0.370340943 , 0.085809432 , -0.464572728 , -0.104681499 , 0.883560896 , -0.22443147 , 0.643306971 , 0.323283404 , 
0.76559633 , -0.189472198 , -0.498158634 , 0.0295967627 , 0.55115217 , -0.0867039636 , -0.115243331 , -1.05818033 , 0.00314451777 , -0.685959399 , 
-0.221075118 , -0.383035868 , -0.0881358013 , 0.179749385 , 1.19058561 , -1.08676863 , 0.0750292987 , 0.604668796 , 0.537994862 , -0.525170803 , 
0.0909130946 , 0.376956493 , -0.227690518 , -0.26842466 , 0.253046215 , -0.561369956 , 0.113085106 , -0.27159825 , -1.28876436 , -0.675436616 , 
-0.331896186 , -0.671005666 , -0.108678415 , 0.102761798 , -0.122705854 , -0.450376958 , 0.135143712 , 0.0574207418 , 0.113173395 , -0.707620144 , 
-0.312802702 , 0.06095355 , 0.472673953 , 0.259470522 , 0.0456461273 , 0.024191821 , -0.00560013764 , 0.270296574 , 0.0253300555 , -0.025814224 , 
0.511134028 , -0.0176833533 , -0.0451136418 , -0.0594680123 , -0.0360474512 , 0.352540553 , 1.22776926 , 0.0347622633 , -0.672763288 , -0.113109238 , 
0.570334315 , 0.176943079 , -0.142183691 , 0.312751621 , -0.940591037 , -0.03656625 , -0.324517727 , -0.261223704 , 0.0674458817 , 0.764670908 , 
-0.615565836 , -0.429569036 , -0.192659691 , 0.472649544 , -0.164455682 , -0.0976060927 , 0.045179721 , 0.602371633 , -1.7266587 , 0.884901166 , 
-0.283802092 , 0.497397155 , 0.272728473 , 0.170170039 , -0.358055592 , -0.0174602624 , 0.217387587 , 0.422749579 , 0.388979018 , 0.183312058 , 
0.689246237 , -0.347034991 , 0.638105512 , -0.874994516 , -0.735856473 , 0.674728632 , -0.202624112 , 0.0336832404 , 0.265743375 , -0.36753878 , 
-0.338495165 , 0.424839795 , 0.208996788 , -0.172193184 , -0.224915415 , 0.474378943 , 0.533342004 , -0.084367387 , 0.479539901 , 0.38435626 , 
-0.25158146 , -0.542091668 , -0.224852026 , -0.121055484 , -0.214399159 , 0.325604707 , 0.013323443 , -0.161677763 , 0.0557301752 , 0.0787807629 , 
0.0189665779 , 0.273597836 , -0.0296072476 , -0.556614816 , -0.766775489 , 0.349472106 , 0.0370076559 , 0.122809507 , 0.130966142 , 0.264788032 , 
-0.600397706 , 0.13641496 , -0.0884070024 , 0.220807731 , -0.176071778 , 0.108285852 , -0.0201059096 , 0.327090144 , -0.386478275 , -0.31272155 , 
0.432479888 , 0.0959931687 , 0.679270685 , 0.287932664 , 0.23549065 , -0.731170475 , 0.0385998972 , 0.0879336372 , -0.133252695 , -0.50373596 , 
0.0582374707 , -0.204715386 , -0.0724048615 , 0.130053267 , -0.49823603 , -0.0983766839 , 1.35372913 , -0.928194165 , 0.31244415 , -0.347835094 , 
-0.107802495 , -0.0459278747 , -0.192835748 , 0.758381665 , -0.289142668 , -0.0163536984 , -0.892702758 , 0.287986606 , 0.42943722 , -0.114383869 , 
-0.442438632 , -0.26991272 , 0.545205891 , 0.243834794 , -0.293321669 , 0.439905643 , -0.0276968088 , -0.00196628086 , -0.350850314 , -0.952708066 , 
-0.579595864 , 0.673751652 , -0.0729663298 , 0.0861263946 , -0.800394833 , -0.219169393 , 0.612899423 , -0.0535122678 , 0.423287541 , -0.354453892 , 
0.884494841 , -0.467785925 , 0.978213191 , 0.538790524 , 0.187312469 , 0.115906343 , -0.0410694629 , -0.252788961 , 0.0645690262 , -0.177044168 , 
0.0362350941 , 0.119827785 , 0.0807894394 , 0.11135605 , -0.114469729 , -0.571951687 , 0.752762735 , -0.200711295 , -0.952164054 , 0.404627264 , 
0.626779675 , -0.685685992 , -0.0667517409 , 0.608513594 , -0.00139287615 , -0.123517863 , 0.000106123742 , -0.271069378 , 0.368813097 , 0.0192192756 , 
0.332743227 , 0.156311557 , -0.262367189 , -0.647856712 , -0.18543905 , -0.535936415 , -0.134233251 , -0.725640595 , -0.116198041 , -0.272837728 , 
-0.166555211 , 0.658000708 , 0.432535201 , 0.154008687 , -0.948598027 , -0.0989383459 , 0.361473888 , 0.879385471 , 0.339148581 , 1.06050181 , 
0.632046819 , 0.295550406 , 0.0242791325 , -0.939785182 , -0.214816913 , -0.069575116 , -0.382337302 , -0.161926895 , -1.06120443 , -0.189300239 , 
-0.555233717 , 0.377833605 , 0.217921287 , -0.0403822586 , 0.165920824 , -0.276607811 , -0.922502697 , -0.352852076 , 0.479696453 , -0.529079378 , 
-0.212921605 , 0.466656208 , -0.166924745 , 0.0701081455 , 0.0976279378 , -0.321820825 , 0.495936215 , 0.410553664 , 0.0141181834 , -1.00602472 , 
-1.29636443 , 0.176816523 , 2.31864357 , -0.0784565359 , 0.314435542 , -0.0522728413 , -0.622599602 , 0.00412146701 , 0.177362978 , 0.247361466 , 
0.334531784 , 0.130648509 , 0.580548346 , 0.363592774 , 0.444654346 , 1.03601825 , -0.927651286 , 0.878242016 , -0.442397952 , 0.167038724 , 
0.544826806 , -0.828801572 , 0.672246277 , 0.0675371066 , 0.813679516 , 0.370145172 , -0.484265685 , 0.109878235 , -0.318102658 , 0.122725733 , 
0.399752349 , 0.934584796 , -0.16460523 , -0.0359266102 , -0.231428832 , 0.186564967 , 0.78102839 , 1.25071049 , -0.00810165145 , 0.182007313 , 
0.571951926 , -0.547272086 , -0.397172391 , 0.176859632 , 0.303003311 , -0.166562796 , -0.757523715 , 0.413823158 , -0.0840165988 , -0.153030366 , 
-0.0402853042 , -0.139606133 , 0.564785421 , 0.591510236 , -0.45873794 , 0.267627776 , 0.373271614 , -0.0232415237 , 0.303101838 , -0.700811327 , 
0.540676296 , 0.468330026 , 0.0790660754 , -0.33599472 , 0.573572934 , -0.0863559097 , -1.49682832 , -0.370595694 , 0.0523340777 , 0.355483592 , 
-0.221618578 , -0.508427799 , 0.0570721701 , -0.0689455569 , 0.181414127 , 0.0628211498 , -0.831269681 , 0.253183335 , -0.6511814 , -0.522105336 , 
-0.0923550576 , 0.482853472 , 0.11075931 , 0.250292033 , 0.188678965 , -0.283184022 , 0.143565327 , 0.128661111 , 0.0463108718 , -0.225079551 , 
0.165179983 , -0.281657338 , 0.34698382 , -0.364058495 , 0.260077149 , -0.360868305 , -0.363013923 , -0.00817280635 , -0.124436744 , -0.386485189 , 
0.574708045 , -0.0390405394 , -0.296109527 , -0.120875381 , 0.457754493 , -0.0230434518 , 0.39183706 , 0.181298792 , 0.338135988 , 0.0481675118 , 
-0.306270927 , 0.207710043 , -0.778902709 , 0.45476225 , 0.953372061 , 1.59976971 , -0.366701543 , 0.0278140213 , 0.456389129 , -0.28333801 , 
-0.0913435593 , 0.969477713 , -0.938594759 , 0.647927821 , -0.0431700423 , -0.273662537 , -0.0450648218 , 0.57507515 , -0.686544299 , -0.461769611 , 
-0.321847975 , -0.375020921 , 0.609598637 , 0.675728679 , 0.0185467638 , 0.609634697 , 0.377541065 , -0.164849773 , 0.162537113 , -0.226831779 , 
0.190903366 , 0.233487174 , 0.769053221 , 0.638241231 , -0.158755183 , -0.267797977 , 0.0417783819 , -0.0153195579 , 0.0832230374 , 0.162994385 , 
-0.117434911 , -0.474200934 , -0.258455992 , 0.201440305 , 0.418058217 , 0.125891984 , 0.302005321 , 0.147291645 , -0.504998326 , 0.0540702529 , 
-0.0120757986 , -0.468531132 , 0.697421312 , 0.103887916 , -0.675309658 , -0.269423485 , 0.318425655 , -0.360110134 , -1.12669861 , -0.378738105 , 
-0.381881326 , -0.204465598 , 0.137656778 , 0.559607089 , -0.20865725 , -0.0277364329 , 0.0437591262 , -0.260777742 , -0.891684532 , -0.583630145 , 
0.117197894 , -0.301857024 , 0.232048005 , -0.406395197 , 0.330182791 , 0.775682688 , 0.800243139 , -0.322807938 , -0.316507876 , -0.255825907 , 
-0.139141575 , 0.172949269 , 0.887169778 , 0.112361245 , 0.584616959 , -0.229443505 , -0.0121431826 , -0.0425796807 , -0.610006988 , -0.0649658367 , 
0.0444499925 , 0.229505524 , 0.128365666 , 0.0814887732 , 0.73848021 , 0.166777715 , -1.25522435 , -0.0991380811 , -0.794091165 , -0.108379133 , 
-0.226139322 , 0.161183283 , 0.528308988 , 0.212008148 , 0.832218587 , 0.100101568 , -0.0988249928 , -0.180823252 , -0.593611419 , -0.192114711 , 
-0.0695996433 , 0.31708169 , -1.36234081 , 0.195782676 , 0.241567016 , -0.127664492 , -0.335734665 , 0.322716296 , -0.590085804 , 0.365092635 , 
-0.0904714391 , 0.0847652107 , -0.0305684768 , -0.565977693 , 0.3813169 , 0.104605407 , 0.221714765 , 0.280387878 , -0.0949988514 , -0.287344754 , 
-0.0268851295 , 0.286572754 , -0.0387358405 , -1.22303712 , 0.279854 , 0.0624693893 , -0.00605009962 , -0.206866369 , 0.0133305062 , -0.531045258 , 
0.114393413 , -0.371956557 , -0.0476430543 , -0.257138878 , -0.358281076 , 0.182284683 , -0.0957218111 , 0.256797731 , -0.266193479 , 0.266302407 , 
-0.147495762 , -0.131557316 , -0.164534017 , -0.324462235 , -0.429839879 , -0.0134706739 , 0.229521975 , 0.28695634 } ; 
